{
    "weights": [
        [
            [
                0.40493835060879235,
                0.20743253451558477,
                0.06402991979661467,
                -0.8090088362485507,
                -1.2751436888762053,
                0.505505168411257,
                1.247402824906648,
                -1.6227915803062092,
                -0.7157534474582331,
                -0.23008547783951477,
                1.4986459641378995,
                0.674583119050811,
                0.7177856431365119,
                0.25119816440552784,
                -0.802146704548352,
                0.2652918874157261,
                1.754838433363068,
                0.19419288826736858,
                -0.7758902888230769,
                1.3377235357003996,
                1.2638757880481495,
                0.8255617370930503,
                2.2534326907360844,
                -0.32477282416311914,
                -0.33609109666508413,
                -2.3426374183013277,
                0.038074485418768976,
                0.598456494243393,
                0.15719538621465767,
                0.1770151560989054,
                1.0056666661201625,
                0.42430964579689423,
                0.5939144083942273,
                0.3772669337828835,
                0.024284196823308242
            ],
            [
                1.1716990714866862,
                0.15917049020316235,
                -0.17245590023744375,
                -0.7400365414316591,
                0.009715550551156605,
                0.38918896778951784,
                0.5073202229307133,
                0.05834713237619777,
                -0.5864308061619693,
                -1.4558365381551577,
                0.5654298276771462,
                -1.1707319801157612,
                0.09693144324746548,
                1.0101785600552935,
                0.3731286783397791,
                -1.3130946360633264,
                0.6315090898288225,
                -0.08818484551207638,
                -0.7431953665302898,
                1.6746977381611428,
                -0.11995025506239977,
                2.92862143354317,
                -1.1619808119303783,
                -0.2445843804927193,
                0.20384881075802394,
                0.9369634725460174,
                -0.20521213772461497,
                1.7747329748218017,
                0.3276609878538447,
                -1.1000780525920013,
                -0.1412493140400331,
                0.2310311135527128,
                0.09313752356275634,
                -1.0362798352520413,
                -0.18726031811652344
            ],
            [
                1.1270601259666244,
                0.8636235582826077,
                1.7203488575601307,
                -1.0520918898616614,
                -0.8955338988811327,
                2.0594743282130032,
                0.2697713846931394,
                0.47400540192151824,
                -0.8230062266358796,
                0.29845224437371115,
                -0.09153952551068281,
                0.14190712670783645,
                1.344919423998755,
                -0.7338597400952306,
                0.018746103803227634,
                -1.9973045444622466,
                0.26262353045767606,
                -1.1276510848432741,
                1.525343355043655,
                -1.268444677517983,
                1.3014476129131494,
                -0.869267327362001,
                -1.8177798442296986,
                0.22094484001823364,
                0.19576060832057332,
                -1.0368388763534335,
                -1.4801674963800926,
                -2.3514449808204088,
                -0.2817949386796155,
                0.25390033332404893,
                -2.2803854444440352,
                -0.08132467151812743,
                1.3565597944996066,
                -2.0736008059519615,
                0.3139792965908071
            ],
            [
                0.5579957672614803,
                -0.622282581718117,
                0.26510671791626317,
                -1.1649229436997406,
                0.45980365579901333,
                1.601286723690751,
                -0.39365626055314656,
                -0.6253073417338312,
                -2.0173639053626613,
                1.8635563825624815,
                1.8078192376210984,
                -0.5038217432536415,
                0.0910187330182422,
                -0.0889002465453567,
                1.344129527453322,
                -1.62603201816625,
                0.612441906932767,
                -2.3133639886943023,
                0.5842864155983466,
                -0.759082729474205,
                1.2505109561068288,
                0.5541644278449144,
                -0.615153109754333,
                -0.7393978714702348,
                -1.26495539083813,
                1.6268579089140167,
                1.0732889655654327,
                -0.60482880509858,
                -1.3479622122598545,
                0.4408701704816951,
                0.01204228094762794,
                -0.5436489733270488,
                0.048374253094894654,
                0.6069351561485079,
                -0.027707828502488905
            ],
            [
                1.128881335632613,
                0.1306440875321141,
                0.5551007526362909,
                -0.5918343853743103,
                1.2994558229032467,
                0.09889816064431425,
                -0.15585160425474676,
                0.31899387589018907,
                -0.33416022388798305,
                -0.3701345685929173,
                0.33002261929877463,
                1.0851261227683984,
                -1.0855673870887736,
                0.1677193767775279,
                -0.28998621027581584,
                -1.3502184107125528,
                -0.026370608761591204,
                0.19936866135301276,
                -1.0474620329554054,
                -1.4851021026499263,
                -2.0708355641574703,
                0.13706090823398207,
                1.4528189377283052,
                -0.5191406571595448,
                -1.8696198956826169,
                1.5532535382260695,
                -0.10490501872152821,
                1.4030287446565857,
                -0.7152887269786617,
                1.1780744878417075,
                -0.11965577798563312,
                -0.9653721186944092,
                -0.26156134722651386,
                0.09789171965143866,
                -1.3469625058539603
            ],
            [
                1.0386369746310893,
                -0.3425622247238433,
                0.8249017206259983,
                -0.09658402908562831,
                0.4960505767805314,
                0.7816892287153846,
                -2.022782341605967,
                -0.29452314009718483,
                0.8131552390635692,
                -0.27624770582411734,
                1.5391215449791094,
                1.3851067843903935,
                -0.8977552137223179,
                0.12790341417162218,
                0.7866786811588735,
                -0.5494188271377246,
                1.6907099732845379,
                0.5448691192700971,
                0.39180180609554444,
                -0.7538724561631132,
                -0.7299675555897647,
                -0.7825789653650842,
                0.9745778540213633,
                -0.7663396390907405,
                1.0010313032062716,
                2.370710949034489,
                -1.264414933417803,
                -0.7500094968927006,
                1.205835289896031,
                0.31850563555414496,
                -0.6363582043623063,
                -0.10793229206018821,
                0.06928923529553148,
                0.9356166688375049,
                -0.6454364458877582
            ],
            [
                0.42556596382668,
                0.6929282458215695,
                1.026219369909598,
                -0.3652220570554922,
                -0.781303760017647,
                -0.7611882497623377,
                1.070957598150831,
                -0.5054880745000796,
                -0.30551935320735596,
                0.44815467428629363,
                -0.3376390047627049,
                1.36324537536866,
                0.8526175744356589,
                0.7016774518459787,
                0.6652351641498631,
                -1.065738469618303,
                -1.8553933299930976,
                0.1341340975386315,
                0.4827156430494565,
                0.10470783427675343,
                -2.258240283133868,
                -0.7840468645564479,
                -1.5395404598617881,
                -1.234146573214603,
                0.09904346951186449,
                -0.9260637336293334,
                -1.3038409680486562,
                1.1192171523270842,
                0.7702807662553585,
                -0.10959197888558125,
                -1.3077544518016464,
                1.6523844179630685,
                0.8134473379047428,
                -1.971745754760869,
                -1.2630302740804276
            ],
            [
                -1.5263814323549634,
                -2.1758887219928167,
                1.1039829768340508,
                1.3542667980486356,
                -2.220399480018264,
                0.405900597519357,
                -0.2514207332210951,
                0.1036981534074126,
                0.7555144779782269,
                0.754803355021409,
                -0.0039658149206211885,
                -0.7107107094978655,
                0.3839478177819683,
                1.6703718283250155,
                -1.3839190260396859,
                -0.7257062470158209,
                -0.18043043116051097,
                -1.1188845968603807,
                -0.5197775345136701,
                0.5891291256251967,
                0.6408721080838311,
                -0.20404598022192322,
                -0.11467454228391336,
                -0.8382579884230472,
                0.5098883714428466,
                -0.5394860351848946,
                -1.085460873930564,
                -0.7385275137199706,
                -0.32207315149751997,
                1.4445303764204216,
                -0.04221382057416227,
                -0.681036046237703,
                1.8733717184377308,
                -0.07882647347794756,
                1.3089926458003351
            ],
            [
                0.3261465396204884,
                0.45839148645492633,
                -1.3215413695254803,
                0.15914629605120442,
                -0.6369060452177606,
                -1.280107768868051,
                0.2530310035080776,
                -0.2972724258697347,
                -0.020440427108028857,
                0.7491936053538717,
                -2.358963976593821,
                0.1386848569582716,
                -1.718069662852186,
                -1.9054358082481941,
                -0.25157196972705875,
                -0.6642879329004113,
                -2.467810411835867,
                -0.4261447178847396,
                -0.0920906094355033,
                1.0008344569198226,
                0.8028176506965244,
                -0.31072418670092117,
                -1.7327958852659684,
                -0.407194084076752,
                0.16107128720812788,
                0.4130091712529102,
                0.6969027401529104,
                -0.026302911278338257,
                0.22310410816081275,
                -0.732165791155602,
                -0.48515850607956157,
                0.2842159936149284,
                0.7136018257532081,
                -1.365761486795633,
                -0.5738764687586103
            ],
            [
                -0.34444465964519394,
                0.31397037684698853,
                -0.3740107222855583,
                2.0314688624386763,
                0.07888032923313701,
                -0.9745583878434255,
                -0.33137143693626786,
                -0.643828116082759,
                -0.2442223733909338,
                0.019870689384883546,
                1.210757403966663,
                1.2790672847573104,
                0.49305520447885265,
                -1.2042105400655478,
                0.2049718257320055,
                -1.0015341403027729,
                -0.2889543178357075,
                0.219402614227566,
                -0.33783571840472637,
                2.03921169458489,
                -0.3552439841895839,
                -0.5218878432417109,
                -0.4708362028726764,
                0.8208535546685553,
                -1.861048279616337,
                -0.7737375729242739,
                -1.3208291140001844,
                -0.4014806922292904,
                -1.8005663920742492,
                -0.6514186348844948,
                0.6413522378004388,
                -1.1732585187419853,
                0.648742511289609,
                -1.2406628760571425,
                -0.44079050611499615
            ]
        ],
        [
            [
                -2.185645676891235,
                1.3399438242245862,
                1.4194059597546915,
                -0.33793725239812594,
                2.1238770289104374,
                -1.0463447009947207,
                4.150907343687415,
                -0.8731043471847464,
                -0.8072704737619547,
                0.8800130383795047
            ]
        ]
    ],
    "biases": [
        [
            [
                0.8936902256414898
            ],
            [
                0.019387452163815974
            ],
            [
                -0.9959272895465555
            ],
            [
                0.887639142812661
            ],
            [
                0.8827088270131667
            ],
            [
                -1.035375132325522
            ],
            [
                -0.1312082490087082
            ],
            [
                -1.3010400106610502
            ],
            [
                -1.424609243505316
            ],
            [
                1.4502969228399083
            ]
        ],
        [
            [
                -0.7141199699568653
            ]
        ]
    ],
    "test_results": [
        [
            [
                0.6533523370818448,
                0
            ],
            [
                0.6029925060605786,
                0
            ],
            [
                0.6792425276388668,
                1
            ],
            [
                0.514085565995295,
                0
            ],
            [
                0.737082762538971,
                1
            ],
            [
                0.7646551402024666,
                1
            ],
            [
                0.7437049614739232,
                1
            ],
            [
                0.7042159235801493,
                0
            ],
            [
                0.7162597256460066,
                1
            ],
            [
                0.41263597728378326,
                0
            ]
        ],
        [
            [
                0.6823626796479565,
                1
            ],
            [
                0.8151121568053884,
                1
            ],
            [
                0.6127291981981061,
                0
            ],
            [
                0.29441801562201514,
                0
            ],
            [
                0.47314288847867264,
                0
            ],
            [
                0.4008703990576027,
                0
            ],
            [
                0.7089461957266096,
                1
            ],
            [
                0.6904196024924318,
                1
            ],
            [
                0.3806050672711358,
                0
            ],
            [
                0.8709151933648235,
                1
            ]
        ],
        [
            [
                0.22507733486195294,
                0
            ],
            [
                0.5525176459839187,
                1
            ],
            [
                0.24069329752847632,
                0
            ],
            [
                0.2075859130187313,
                0
            ],
            [
                0.2630952218938138,
                0
            ],
            [
                0.6113347782385726,
                1
            ],
            [
                0.5786044576533735,
                1
            ],
            [
                0.842104235355035,
                1
            ],
            [
                0.825539433298366,
                1
            ],
            [
                0.2879358879591727,
                0
            ]
        ],
        [
            [
                0.996840969847575,
                0
            ],
            [
                0.9991804797804351,
                0
            ],
            [
                0.9981850575305206,
                1
            ],
            [
                0.9979277545979092,
                0
            ],
            [
                0.9989433879920153,
                1
            ],
            [
                0.995884753633593,
                1
            ],
            [
                0.9078512515754062,
                0
            ],
            [
                0.996958888163717,
                0
            ],
            [
                0.9997340360965591,
                1
            ],
            [
                0.9992033448915241,
                1
            ]
        ],
        [
            [
                0.9927844915687996,
                1
            ],
            [
                0.9930898841868058,
                0
            ],
            [
                0.9954234972824375,
                0
            ],
            [
                0.9928513214137709,
                0
            ],
            [
                0.9981942014463885,
                0
            ],
            [
                0.6857426589517858,
                0
            ],
            [
                0.9981746406846944,
                1
            ],
            [
                0.9985457311987969,
                1
            ],
            [
                0.9962836220079907,
                1
            ],
            [
                0.9994476271695759,
                1
            ]
        ],
        [
            [
                0.9927746318375978,
                1
            ],
            [
                0.9485904325538493,
                0
            ],
            [
                0.9871160376951881,
                0
            ],
            [
                0.3023206077923309,
                0
            ],
            [
                0.9739662434124886,
                1
            ],
            [
                0.9963449843321516,
                1
            ],
            [
                0.9931588734552411,
                1
            ],
            [
                0.9520136600524068,
                0
            ],
            [
                0.9787768811445596,
                1
            ],
            [
                0.9668666419893255,
                0
            ]
        ],
        [
            [
                0.6127906810636184,
                1
            ],
            [
                0.46509468414122196,
                1
            ],
            [
                0.0880751912579154,
                0
            ],
            [
                0.15738341264681435,
                0
            ],
            [
                0.2638177316036251,
                1
            ],
            [
                0.03662035921563638,
                0
            ],
            [
                0.0833518831304986,
                0
            ],
            [
                0.5277740254944286,
                1
            ],
            [
                0.7355142377951974,
                1
            ],
            [
                0.13158800094506426,
                0
            ]
        ],
        [
            [
                0.18660543093787926,
                0
            ],
            [
                0.059275766321699556,
                0
            ],
            [
                0.5884447084944691,
                1
            ],
            [
                0.9093185649560411,
                1
            ],
            [
                0.13586250729795013,
                0
            ],
            [
                0.83744123670818,
                1
            ],
            [
                0.6281518332123318,
                1
            ],
            [
                0.08185579991841646,
                0
            ],
            [
                0.8589770118514599,
                1
            ],
            [
                0.14608086084430524,
                0
            ]
        ],
        [
            [
                0.9254801353365384,
                0
            ],
            [
                0.9918665683381298,
                1
            ],
            [
                0.8943665402644949,
                0
            ],
            [
                0.6854946205724926,
                0
            ],
            [
                0.974613592053673,
                1
            ],
            [
                0.9948687096064464,
                1
            ],
            [
                0.6140092535063717,
                0
            ],
            [
                0.9840230985657038,
                1
            ],
            [
                0.15037296230655192,
                0
            ],
            [
                0.973742870166381,
                1
            ]
        ],
        [
            [
                0.9803692034921841,
                1
            ],
            [
                0.479868586760812,
                0
            ],
            [
                0.981216157006188,
                1
            ],
            [
                0.11216816973231766,
                0
            ],
            [
                0.9274370527746889,
                1
            ],
            [
                0.40818422253406395,
                0
            ],
            [
                0.954693519978104,
                1
            ],
            [
                0.3336102046912837,
                0
            ],
            [
                0.933179864426365,
                1
            ],
            [
                0.07580715999508851,
                0
            ]
        ],
        [
            [
                0.03043675924424095,
                0
            ],
            [
                0.02786341980324833,
                0
            ],
            [
                0.8500425713541744,
                1
            ],
            [
                0.060217951999185906,
                0
            ],
            [
                0.7537805479103596,
                1
            ],
            [
                0.11349918154527175,
                0
            ],
            [
                0.9317743760580389,
                1
            ],
            [
                0.8993051334673402,
                1
            ],
            [
                0.7826129999981268,
                1
            ],
            [
                0.11708670425929951,
                0
            ]
        ],
        [
            [
                0.979147962528453,
                1
            ],
            [
                0.24483045295263356,
                0
            ],
            [
                0.3311558498495326,
                0
            ],
            [
                0.9504904301448862,
                1
            ],
            [
                0.18093302996445107,
                0
            ],
            [
                0.0669972689673045,
                0
            ],
            [
                0.05403317685740268,
                0
            ],
            [
                0.9800000271991255,
                1
            ],
            [
                0.9440685544549926,
                1
            ],
            [
                0.933087905450552,
                1
            ]
        ],
        [
            [
                0.14206714506896942,
                0
            ],
            [
                0.07099387886572855,
                0
            ],
            [
                0.029409633443830494,
                0
            ],
            [
                0.9078465233754228,
                1
            ],
            [
                0.8647384699213909,
                1
            ],
            [
                0.9588918806894211,
                1
            ],
            [
                0.031548064808839586,
                0
            ],
            [
                0.8834494833010834,
                1
            ],
            [
                0.09315346258346864,
                0
            ],
            [
                0.9468503267944043,
                1
            ]
        ],
        [
            [
                0.8770689316689035,
                1
            ],
            [
                0.8610809354333034,
                1
            ],
            [
                0.08393887872935735,
                0
            ],
            [
                0.026149719853220694,
                0
            ],
            [
                0.9449831341935236,
                1
            ],
            [
                0.029094866711842127,
                0
            ],
            [
                0.12520039394325322,
                0
            ],
            [
                0.9103002891199397,
                1
            ],
            [
                0.9592938150684412,
                1
            ],
            [
                0.06257413531202606,
                0
            ]
        ],
        [
            [
                0.9344872896977555,
                1
            ],
            [
                0.9177003065685403,
                1
            ],
            [
                0.03313507135270783,
                0
            ],
            [
                0.10361087883403372,
                0
            ],
            [
                0.16882691920371531,
                0
            ],
            [
                0.9668474568158463,
                1
            ],
            [
                0.9716413374434513,
                1
            ],
            [
                0.08473891325364184,
                0
            ],
            [
                0.03393647590464421,
                0
            ],
            [
                0.9121943109492235,
                1
            ]
        ],
        [
            [
                0.9687639652410599,
                1
            ],
            [
                0.9613830497979075,
                1
            ],
            [
                0.0693297276050264,
                0
            ],
            [
                0.13884612558040926,
                0
            ],
            [
                0.9064696871691946,
                1
            ],
            [
                0.9009109361742004,
                1
            ],
            [
                0.027351889264012254,
                0
            ],
            [
                0.9312949377724545,
                1
            ],
            [
                0.029602183500995628,
                0
            ],
            [
                0.08210959378939645,
                0
            ]
        ],
        [
            [
                0.8972721329957821,
                1
            ],
            [
                0.024840865436380966,
                0
            ],
            [
                0.12639430151445277,
                0
            ],
            [
                0.9318829490418618,
                1
            ],
            [
                0.9601669827307998,
                1
            ],
            [
                0.9039114007854472,
                1
            ],
            [
                0.02761510237519841,
                0
            ],
            [
                0.06344022841982429,
                0
            ],
            [
                0.968659825922664,
                1
            ],
            [
                0.07276195198298512,
                0
            ]
        ],
        [
            [
                0.0215942635458695,
                0
            ],
            [
                0.9572707400898629,
                1
            ],
            [
                0.055187790044573276,
                0
            ],
            [
                0.9316269671788384,
                1
            ],
            [
                0.9680306312822456,
                1
            ],
            [
                0.8879506464530998,
                1
            ],
            [
                0.06487286353548724,
                0
            ],
            [
                0.02502390275569288,
                0
            ],
            [
                0.10781655185555698,
                0
            ],
            [
                0.8987242473404337,
                1
            ]
        ],
        [
            [
                0.02565468607437658,
                0
            ],
            [
                0.02253247928506857,
                0
            ],
            [
                0.1159130116057592,
                0
            ],
            [
                0.9011372483404494,
                1
            ],
            [
                0.06822687891758603,
                0
            ],
            [
                0.9719751509435016,
                1
            ],
            [
                0.9637755653566821,
                1
            ],
            [
                0.9131629593248074,
                1
            ],
            [
                0.9401721685622659,
                1
            ],
            [
                0.05830328218211488,
                0
            ]
        ],
        [
            [
                0.0266362614626483,
                0
            ],
            [
                0.9753947116071042,
                1
            ],
            [
                0.9469848750593808,
                1
            ],
            [
                0.07188424605011086,
                0
            ],
            [
                0.9241467185863522,
                1
            ],
            [
                0.02389034873842314,
                0
            ],
            [
                0.12627846766869136,
                0
            ],
            [
                0.9697554851351287,
                1
            ],
            [
                0.9170293597050467,
                1
            ],
            [
                0.0626873092043772,
                0
            ]
        ],
        [
            [
                0.13593936254750688,
                0
            ],
            [
                0.9241241153599035,
                1
            ],
            [
                0.9515713797066212,
                1
            ],
            [
                0.0246606412984533,
                0
            ],
            [
                0.026839804042367167,
                0
            ],
            [
                0.0754273224009071,
                0
            ],
            [
                0.06702374860504794,
                0
            ],
            [
                0.9782676257110355,
                1
            ],
            [
                0.9742028160302386,
                1
            ],
            [
                0.93810061580352,
                1
            ]
        ],
        [
            [
                0.023656687919117705,
                0
            ],
            [
                0.9468298780473953,
                1
            ],
            [
                0.020312261710124183,
                0
            ],
            [
                0.9213143045102969,
                1
            ],
            [
                0.9098051910820709,
                1
            ],
            [
                0.10630479499247518,
                0
            ],
            [
                0.06182987783420007,
                0
            ],
            [
                0.9748570551817908,
                1
            ],
            [
                0.05258103681963111,
                0
            ],
            [
                0.9680232934311063,
                1
            ]
        ],
        [
            [
                0.06667814086786863,
                0
            ],
            [
                0.9533727381020558,
                1
            ],
            [
                0.9739618647021926,
                1
            ],
            [
                0.02496372839826898,
                0
            ],
            [
                0.05881282843652432,
                0
            ],
            [
                0.11883229220102794,
                0
            ],
            [
                0.9328206037648138,
                1
            ],
            [
                0.022047927203823706,
                0
            ],
            [
                0.9255199632225458,
                1
            ],
            [
                0.9785190777919324,
                1
            ]
        ],
        [
            [
                0.06459504953015698,
                0
            ],
            [
                0.11583343490938428,
                0
            ],
            [
                0.021359718376948725,
                0
            ],
            [
                0.9549632432156215,
                1
            ],
            [
                0.024398926288858976,
                0
            ],
            [
                0.9340927961588074,
                1
            ],
            [
                0.9747966486326972,
                1
            ],
            [
                0.9791587929211695,
                1
            ],
            [
                0.05679500031074799,
                0
            ],
            [
                0.9284831358979355,
                1
            ]
        ],
        [
            [
                0.9792287901848253,
                1
            ],
            [
                0.1094143578801425,
                0
            ],
            [
                0.053729018532348745,
                0
            ],
            [
                0.974418248292736,
                1
            ],
            [
                0.9554048340067859,
                1
            ],
            [
                0.061535256648957155,
                0
            ],
            [
                0.9334415767876539,
                1
            ],
            [
                0.92742238614321,
                1
            ],
            [
                0.023399996874064063,
                0
            ],
            [
                0.020190685125072248,
                0
            ]
        ],
        [
            [
                0.9505737416858819,
                1
            ],
            [
                0.016357368693053598,
                0
            ],
            [
                0.05009391949195969,
                0
            ],
            [
                0.9133302235645503,
                1
            ],
            [
                0.02037773521837472,
                0
            ],
            [
                0.9759184766993723,
                1
            ],
            [
                0.9112449630549466,
                1
            ],
            [
                0.042165912143416105,
                0
            ],
            [
                0.9674222275514796,
                1
            ],
            [
                0.08301220475212398,
                0
            ]
        ],
        [
            [
                0.1181017263671262,
                0
            ],
            [
                0.023601331082627422,
                0
            ],
            [
                0.05837738169692326,
                0
            ],
            [
                0.9828549217272772,
                1
            ],
            [
                0.02082574949368141,
                0
            ],
            [
                0.06513884167160679,
                0
            ],
            [
                0.9796712133915209,
                1
            ],
            [
                0.9617230506896453,
                1
            ],
            [
                0.93888344969434,
                1
            ],
            [
                0.9482436044380773,
                1
            ]
        ],
        [
            [
                0.022961625657589118,
                0
            ],
            [
                0.019949989760948365,
                0
            ],
            [
                0.11167027962304778,
                0
            ],
            [
                0.9829554927978572,
                1
            ],
            [
                0.062127351713154866,
                0
            ],
            [
                0.9464456334521811,
                1
            ],
            [
                0.9623422604998347,
                1
            ],
            [
                0.055668145445558696,
                0
            ],
            [
                0.9396038574709875,
                1
            ],
            [
                0.9796691613038303,
                1
            ]
        ],
        [
            [
                0.019650607620421055,
                0
            ],
            [
                0.04188133270248374,
                0
            ],
            [
                0.9258576155162306,
                1
            ],
            [
                0.9230644646320272,
                1
            ],
            [
                0.04870330280509616,
                0
            ],
            [
                0.01570360482293813,
                0
            ],
            [
                0.956865848843078,
                1
            ],
            [
                0.9794136315540246,
                1
            ],
            [
                0.9726276658104639,
                1
            ],
            [
                0.08113520623355569,
                0
            ]
        ],
        [
            [
                0.0917380214670623,
                0
            ],
            [
                0.020835435127685747,
                0
            ],
            [
                0.9376394035568171,
                1
            ],
            [
                0.9822285590624297,
                1
            ],
            [
                0.9775533158426539,
                1
            ],
            [
                0.053240439252669976,
                0
            ],
            [
                0.04715297033926267,
                0
            ],
            [
                0.01716500479421656,
                0
            ],
            [
                0.962227784019845,
                1
            ],
            [
                0.9353908860127744,
                1
            ]
        ],
        [
            [
                0.977160397847889,
                1
            ],
            [
                0.08768848980150332,
                0
            ],
            [
                0.9342867625574325,
                1
            ],
            [
                0.9622610392054818,
                1
            ],
            [
                0.9821943082630143,
                1
            ],
            [
                0.04515419879022305,
                0
            ],
            [
                0.9369490356500807,
                1
            ],
            [
                0.05105952081383839,
                0
            ],
            [
                0.016430724090229762,
                0
            ],
            [
                0.020158966692525156,
                0
            ]
        ],
        [
            [
                0.9796550748379463,
                1
            ],
            [
                0.09380477843203192,
                0
            ],
            [
                0.9390651600776337,
                1
            ],
            [
                0.020489191907919774,
                0
            ],
            [
                0.04783739633474112,
                0
            ],
            [
                0.9838051997352046,
                1
            ],
            [
                0.017010571870241475,
                0
            ],
            [
                0.053607929566429305,
                0
            ],
            [
                0.9650865103681058,
                1
            ],
            [
                0.9460700201814174,
                1
            ]
        ],
        [
            [
                0.044925487113299085,
                0
            ],
            [
                0.9369524223693267,
                1
            ],
            [
                0.08778698801824837,
                0
            ],
            [
                0.9788084221273385,
                1
            ],
            [
                0.01608238258197676,
                0
            ],
            [
                0.05069683813940823,
                0
            ],
            [
                0.9647290461268168,
                1
            ],
            [
                0.943822120226072,
                1
            ],
            [
                0.9835369815459806,
                1
            ],
            [
                0.01968757244512296,
                0
            ]
        ],
        [
            [
                0.019486314791095687,
                0
            ],
            [
                0.01584428064149956,
                0
            ],
            [
                0.944176293691665,
                1
            ],
            [
                0.08663802160359264,
                0
            ],
            [
                0.9838794834018398,
                1
            ],
            [
                0.9793182389368738,
                1
            ],
            [
                0.9656369972283102,
                1
            ],
            [
                0.04981193507250573,
                0
            ],
            [
                0.04410868352817438,
                0
            ],
            [
                0.9392374222746007,
                1
            ]
        ],
        [
            [
                0.9663785929943335,
                1
            ],
            [
                0.9799100574151908,
                1
            ],
            [
                0.0866902187793801,
                0
            ],
            [
                0.019184080964842976,
                0
            ],
            [
                0.9402396361110246,
                1
            ],
            [
                0.04957505457102665,
                0
            ],
            [
                0.015606320523734712,
                0
            ],
            [
                0.9843392124811295,
                1
            ],
            [
                0.04355825590139637,
                0
            ],
            [
                0.9475161419559707,
                1
            ]
        ],
        [
            [
                0.04864939508294983,
                0
            ],
            [
                0.9846664123679263,
                1
            ],
            [
                0.967191241220172,
                1
            ],
            [
                0.9475474664803646,
                1
            ],
            [
                0.08544809647285717,
                0
            ],
            [
                0.01902023886081548,
                0
            ],
            [
                0.043038307345194066,
                0
            ],
            [
                0.980374337362215,
                1
            ],
            [
                0.01540180312095276,
                0
            ],
            [
                0.9423581357444485,
                1
            ]
        ],
        [
            [
                0.9663343879674371,
                1
            ],
            [
                0.9840306177056658,
                1
            ],
            [
                0.9436812309602118,
                1
            ],
            [
                0.014351745132613397,
                0
            ],
            [
                0.9391433297939272,
                1
            ],
            [
                0.018118237503467277,
                0
            ],
            [
                0.07831093236313473,
                0
            ],
            [
                0.04516447265626828,
                0
            ],
            [
                0.03951355817579857,
                0
            ],
            [
                0.9790246105133362,
                1
            ]
        ],
        [
            [
                0.9841231542672791,
                1
            ],
            [
                0.07596354238651172,
                0
            ],
            [
                0.9389894347422535,
                1
            ],
            [
                0.01774259053070317,
                0
            ],
            [
                0.013949640344008205,
                0
            ],
            [
                0.978980674058559,
                1
            ],
            [
                0.943458997537961,
                1
            ],
            [
                0.03847169923332744,
                0
            ],
            [
                0.043371530700099824,
                0
            ],
            [
                0.9668031961201189,
                1
            ]
        ],
        [
            [
                0.9671559845864897,
                1
            ],
            [
                0.9791223557436874,
                1
            ],
            [
                0.013643708312806037,
                0
            ],
            [
                0.07447716300299463,
                0
            ],
            [
                0.9393582137181425,
                1
            ],
            [
                0.017435129613047884,
                0
            ],
            [
                0.03779083375265015,
                0
            ],
            [
                0.9439501357755979,
                1
            ],
            [
                0.9843219224219649,
                1
            ],
            [
                0.041974230169130045,
                0
            ]
        ],
        [
            [
                0.9682921479429505,
                1
            ],
            [
                0.9457748446069777,
                1
            ],
            [
                0.038269056449802705,
                0
            ],
            [
                0.980126025879933,
                1
            ],
            [
                0.013709040692930271,
                0
            ],
            [
                0.01746845143458256,
                0
            ],
            [
                0.9848955073348977,
                1
            ],
            [
                0.0753876736715817,
                0
            ],
            [
                0.04172834286945941,
                0
            ],
            [
                0.9425526924399764,
                1
            ]
        ]
    ],
    "epochs": 40
}